,AUD,CAD,EUR,GBP,JPY,USD
1999-01-01,-0.17846462007821523,-0.18916143026317314,0.930588908581297,-0.5894014045456747,0.03058309073559733,-0.08180054579604254
1999-02-01,-0.09472507465923544,-0.025692695632999633,0.9876145664284869,-0.793393561082639,0.05584439938536067,-0.04272970281127855
1999-03-01,-0.09200920076266139,-0.06285975594461368,0.9728199012239452,-0.8222898490205734,0.038680282718977665,-0.011341010329228388
1999-04-01,-0.027384998229856967,0.13905428245558582,0.8284486980744025,-0.5384609805309406,-0.05453203064767382,-0.4121190100615401
1999-05-01,-0.10368981654112186,-0.3980145152818973,0.8648271911173181,-0.5265942032100615,-0.0796443086879709,-0.027229965161630492
1999-06-01,-0.08653351706212535,-0.36159567002409554,0.8323269941054748,-0.5592091116419688,0.1242200700376559,0.036114637128679586
1999-07-01,-0.047415259545562465,-0.30538671685420365,0.9097853559606449,-0.6062514391484082,-0.06962853108372793,0.06153269740745312
1999-08-01,-0.1612820830270748,-0.1966805666887163,0.82724951906647,-0.6340758028333232,0.15755221766201627,0.023159810722399095
1999-09-01,-0.3343082508065086,-0.5475757863175196,-0.1264943429851692,0.6134444879621314,-0.0815093233697727,-0.05885036007012695
1999-10-01,0.40265834697134156,-0.5439973752810288,-0.17992468452242605,0.5002774611883499,-0.35892024770126896,-0.014221884335584434
1999-11-01,0.012984227214497417,-0.9107919655951505,0.23468818073048425,-0.17167744422216102,-0.07348937134747098,0.5963688108902354
1999-12-01,-0.027675088386877544,-0.33962446869493124,0.22885608734559282,-0.34586999367555915,-0.25935322304382485,0.15638568923727364
2000-01-01,-0.13666735247020292,-0.005976287976837352,0.8338962764458425,-0.6353126820163276,0.05654661391079235,-0.3316007871799969
2000-02-01,-0.046258951207585434,-0.08310195762352963,0.9382857443331567,-0.7908504676443177,0.05322868775171053,-0.08827419143970006
2000-03-01,-0.1705153306775719,0.09017271417542329,0.7112914055513253,-0.8111404133605867,0.15171174967140108,-0.0651683865636918
2000-04-01,0.06598927894040467,-0.08988669473763863,0.8872315045960523,-0.7635088006678411,-0.007932463521988706,-0.18545125753607483
2000-05-01,-0.04508063375844067,-0.1923064309852197,0.9220722455753705,-0.740993868460527,0.0693373486162522,0.030209472604189977
2000-07-01,-0.29758426658320253,-0.48957645458235766,0.7902076816492667,-0.31755055064149174,0.09175197419615129,-0.013329072347530006
2000-08-01,-0.013117497361530419,-0.0780105509882405,0.9759752544139558,-0.6781441081260479,0.0031386732215540197,-0.2516139158886716
2000-09-01,0.004583909712503751,-0.31304935599802053,0.8890948508267025,-0.6154058207637966,0.02274850512232345,0.15511755757665327
2000-10-01,0.2707235122141197,-0.20429516015542565,0.318836750180397,-0.12448017008547618,-0.3912243978389153,-0.16529497052632813
2000-11-01,0.433294194683027,-0.08021628088707142,0.5016385897300668,-0.44135681967865303,-0.3486700867691097,-0.19482402825207182
2000-12-01,-0.18409721566469675,-0.216269299588773,0.6474353652549489,-0.45844732267806165,-0.0824875087480768,-0.0901911278208784
2001-01-01,-0.3836724430067227,-0.4317311369096636,-0.31857886896460524,0.5831943022817985,-0.09528983038909833,0.18753341844811167
2001-02-01,-0.06169367276033502,0.013996032656590985,0.919385373937839,-0.8915067836556775,0.09426368785335933,-0.0191544491361984
2001-03-01,-0.15845434493283336,-0.5200555561407835,0.45083889636199337,-0.18359205606963816,0.07107454225279324,0.14021395940194398
2001-04-01,-0.4350225491838657,-0.42727512031025955,0.19059550531335728,0.25062293546952513,0.45716695697081355,0.23931693275217897
2001-05-01,-0.001355641696543782,-0.32075861292042984,0.7028066080244297,-0.6179464128486306,0.10430471544219493,0.2528280090677711
2001-06-01,-0.10780546953448496,-0.04056940232297984,0.8921599512668835,-0.8019510178279186,0.14615127096391545,0.011362888083817331
2001-07-01,0.34147718350267187,-0.35807580563268726,-0.2988543363808586,0.558470786329223,-0.3073799141143285,-0.1357419740402307
2001-08-01,-0.18019933947604289,-0.09459970795587802,-0.14324679763104287,0.190927420490826,-0.275994237970002,-0.16474623148244338
2001-09-01,-0.42489105134171407,-0.39214981966481144,0.47464080898749395,-0.10022954211240787,0.04147480109444002,0.049859719282531245
2001-10-01,-0.39693775604425263,0.08317311877759037,0.5148090662634627,-0.38572804339038713,-0.12742892926040816,-0.49192308626389897
2001-11-01,-0.41018967865977995,-0.09591641401494139,-0.040371462927482366,0.25341875133363856,0.011797521906728226,-0.08871675896201503
2001-12-01,-0.2774597992537101,-0.6872949353723146,0.5293321444597415,-0.11168269689232052,0.0824476142819665,0.31178280973994704
2002-01-01,-0.1840549773347784,-0.30086971213023894,0.8626977307188136,-0.5064872856509097,0.09987692563354963,0.046013368531709696
2002-02-01,-0.04697500862023438,-0.16013711299559177,0.9041679002758396,-0.7469104405946965,-0.04498119647523966,-0.09682834103839813
2002-04-01,-0.011375088504949392,-0.41525783166677815,0.6933892533669058,-0.5560761675884223,-0.02162626381942731,0.30227539505351675
2002-05-01,0.09042654935707127,0.0821612544511811,0.8109787188414748,-0.5661703109796117,0.06472318400353033,-0.3855399823671305
2002-06-01,0.0038660841556299353,-0.31713483023020306,0.9082025111037895,-0.6189018053611133,-0.001277143570474094,0.1506176255787899
2002-07-01,0.5581510946112788,-0.2811177381451983,0.3637535157670935,-0.33133674885750447,-0.3703745441238932,-0.09526635849503144
2002-08-01,-0.18184276653693085,-0.22700771962244073,0.8077088709045326,-0.5840445754233183,0.11544105213523104,0.08395501537754631
2002-09-01,-0.06541227353826123,-0.27193092997289464,0.8558651224888209,-0.6080249764341814,0.015136640460609868,0.18363005710523236
2002-10-01,-0.13707902648341005,-0.7724275568392215,0.5866782569939771,-0.12174094636033805,0.0310671806959093,0.351007032627144
2002-11-01,-0.20862367286748038,-0.245768531968945,0.7854050915299131,-0.5564497162054347,-0.05097013643663395,-0.1527828509915929
2002-12-01,-0.10212175427641355,0.018783487824552084,0.9824152908356422,-0.8210902184704778,0.008273508774722646,-0.06731573981819165
2003-01-01,0.2181088293687576,-0.11558890665694745,0.633223225508371,-0.41103333284184135,-0.3764567067683901,-0.24558899885569263
2003-02-01,-0.07600674707484316,-0.40230865647484776,0.7214127774317096,-0.5872445566563546,-0.10944559690607343,0.10358166545617126
2003-03-01,0.06727871120693726,-0.24816915873336237,0.5706498517315681,-0.3933700456739816,-0.13468003088101121,-0.06628286982498349
2003-04-01,-0.07445692643787838,-0.24343087159223373,0.8271114946275148,-0.6919778274908465,-0.11835303152914475,-0.044669848322381835
2003-05-01,-0.13322819942040506,-0.1450010874113748,0.4615637433638,-0.2681124011800796,-0.06790506483644165,-0.251721372612064
2003-06-01,-0.16933094479593608,-0.12749467723477478,0.16035584693493263,-0.003226679370729811,-0.032815223471541255,-0.10823282179587498
2003-07-01,-0.15490883844057027,-0.08456779831528313,0.41114500508221813,-0.30149643093941936,0.002157456253657597,-0.06442789667661764
2003-08-01,-0.001502194632143644,-0.13051376858932473,0.8765302242614759,-0.6069318603064863,-0.0839443941320057,-0.3005775580785637
2003-09-01,0.29773371874056503,-0.19471143342298097,0.578234872577237,-0.6400938907655116,-0.17749886298855236,0.11172722150515295
2003-10-01,-0.1289469132570645,-0.33207522894678815,0.8304914362454192,-0.5144064106073855,-0.05679821214841918,-0.1372817987949235
2003-11-01,-0.09304181644871347,-0.1303802787239497,0.8299608972316966,-0.5781706828322586,-0.06669528990311042,-0.30175103486027094
2003-12-01,-0.1559266451431972,0.01901246536275035,0.8196876870893212,-0.5569939653437754,0.061662189599845235,-0.3867170474611104
2004-01-01,-0.3382577597805326,-0.7319540346130075,0.1571148426754439,0.21600650430151233,-0.038344726798386936,0.5183221318311169
2004-02-01,0.15899448560910714,-0.7158066246940968,0.5016934410462753,-0.16025832940233425,-0.33094406611808275,0.1323030531301038
2004-03-01,-0.14857958183134892,-0.45944522750836814,0.6589011013149114,-0.5304215212094567,0.001593728237567476,0.20105883989834705
2004-04-01,0.22172738011970033,-0.697476211533964,-0.19266179267218575,0.19565010782251724,-0.1157496728133964,0.5767348350382363
2004-05-01,-0.1121445978811107,-0.5173617089718103,0.37739180450482046,-0.1354244035443078,-0.1312806234052967,0.15553565682277318
2004-06-01,-0.200716272155417,-0.10586746806924135,0.7779088263921287,-0.7031619509701807,0.1390240719822612,-0.0733214104307709
2004-07-01,-0.3915615850870626,-0.2677409732736301,0.180585906058566,0.08208498736713443,-0.012255116389254195,-0.04244081504881536
2004-08-01,-0.12584987706405648,-0.3619839596902644,0.8059654505563107,-0.5937029283621379,0.0391062175758648,0.07339156675136572
2004-09-01,-0.25239781007615913,-0.14840700300325216,-0.15428589944643809,0.2650342466320004,-0.16568239735719287,-0.16669276508196484
2004-10-01,-0.2325111327552912,-0.06085155062443321,0.8895470656774084,-0.5414692506376771,-0.015582518910368789,-0.26003848139482133
2004-11-01,-0.1906438614632926,-0.09261785818641963,0.7480275952884811,-0.7531817492705881,-0.0762425157432985,-0.13928642004792036
2004-12-01,-0.317944307648735,-0.1660390916028332,0.7784547213329766,-0.3183826476447739,0.03994725458592982,-0.3792319771847514
2005-01-01,-0.36945567096002013,-0.32989966495817236,0.6396141558411752,-0.3938781243649526,0.13581643128729745,0.13133595258838204
2005-02-01,0.24813899186139066,-0.07209767761251815,0.6460316870285527,-0.751696340730377,-0.2284662097164946,-0.05356909305066678
2005-03-01,-0.1614429369792745,-0.6965793508629536,-0.20046116881485979,0.4671354366041494,0.016945809899285198,0.4574352968394774
2005-04-01,0.1207291257158888,-0.11475106256352668,0.8684985452954911,-0.6662827231133194,-0.09045135726032713,-0.13928718605144694
2005-05-01,0.008123818891444132,-0.7864567777989885,0.4222766235887597,-0.2554864089131364,-0.061470702135202726,0.46618566867246847
2005-06-01,-0.11247649768942554,-0.21181184473026682,0.857290156051433,-0.6428714240627187,0.13945282838767029,-0.03609724907848586
2005-07-01,-0.07671638431425651,-0.15394558753629026,0.9485817912063884,-0.6358023441040944,-0.08736906645127297,-0.09758482638769758
2005-08-01,-0.32433755198931175,-0.5549630204037778,0.6103818508725218,-0.13527774874358645,-0.1836841714600763,-0.19135565653072556
2005-09-01,-0.1220343577833807,-0.32375895844661456,0.8500305616295292,-0.5517802712966092,0.03305339342382275,-0.11934245742004353
2005-10-01,-0.12538504613912377,-0.15636734196783456,0.8907634572814921,-0.5914580484802625,-0.0682661165764674,-0.16775998955481936
2005-11-01,-0.1387111223312557,-0.09976922106487555,0.9319681567683512,-0.7552302293137129,0.03230212785786953,0.042019142663935125
2005-12-01,-0.17463534538027248,0.0036113076909976205,0.872982045228793,-0.5813407246076091,0.04006929614737678,-0.327361280944951
2006-01-01,-0.07758345273571127,-0.21126435223576934,0.4476400264237762,-0.3465403441217045,-0.1301272569816418,-0.04595740239400753
2006-02-01,-0.3935819514407934,-0.550135541092797,0.2742199636721555,0.28751593696052935,0.18731326812075633,-0.10901416047656642
2006-03-01,-0.1498378348214743,0.02710985027475114,0.797709202984373,-0.7845140440825605,0.14110522670371048,-0.09972384113313097
2006-04-01,0.02106130163807461,-0.500783616518463,0.5726931589849278,-0.25935796503890984,-0.08956049559681623,-0.050349852641582094
2006-05-01,-0.2680437493073469,-0.24608406971817828,0.8318411822163166,-0.5782950884962423,0.020490083462622363,-0.05524582679929335
2006-06-01,-0.1868200694521801,-0.21008420653870552,0.5844133934011944,-0.500284518648257,-0.044554721471299796,-0.09606256341675812
2006-07-01,-0.19911322964816497,-0.10690326690465568,0.8547955336114412,-0.6664456661506181,-0.02221960089397359,-0.15052270279114677
2006-08-01,-0.10687296286720493,-0.17349988964263233,0.8448908777094741,-0.7125033816376556,0.08024490639127463,-0.08198798175175825
2006-09-01,-0.4131655223233819,-0.03447915923127071,0.7562594356538859,-0.20275135915778525,-0.005320346186975368,-0.5880241774467008
2006-10-01,-0.21408246899281408,-0.28978245142199716,0.8189956703793874,-0.5807598566817067,0.08707414453082138,-0.009305407993273495
2006-11-01,-0.19577238231275335,-0.09673616980677024,0.7845569607763213,-0.43261171922469666,-0.051484358618838356,-0.4388384092606202
2006-12-01,-0.05409894739904885,-0.18054037857602626,0.8234706389403407,-0.7339507060435869,-0.13102931308835306,0.076910015952644
2007-01-01,-0.06681321282573909,-0.028058191711968303,0.8760146131909833,-0.768602381052881,-0.04470524367739014,-0.21580635754103847
2007-02-01,0.02804853999320782,-0.17604108599463175,0.9108533163277973,-0.6988653136909357,-0.05778499825187585,-0.12840674574155153
2007-03-01,-0.15433975323427135,-0.05181417614628245,0.8761891598166807,-0.6630308309097448,-0.06642948158822853,-0.18819659830479238
2007-04-01,-0.0796146863621109,-0.2657522401061938,0.8661994608124765,-0.6237891030222257,-0.018629411307074968,-0.1460150983899183
2007-05-01,-0.1133787909434583,-0.02858162528244923,0.39105539437654085,-0.26429777723241543,-0.056379584018631884,-0.16413974043255108
2007-06-01,-0.02711392198490941,-0.22622837588039676,0.8850915551344813,-0.776890334678957,-0.032048444061727195,-0.052627368259528275
2007-07-01,-0.22170933994902273,-0.14809324093799714,0.9383618142952517,-0.6350888711493771,0.024647759186104345,0.03209897448224701
2007-08-01,-0.1295552010246701,-0.08966134323336063,0.9083512085581025,-0.6034403162246162,-0.08466447939631272,-0.18432745156293764
2007-09-01,0.010929183613955312,-0.14076684364426345,0.9250642722404415,-0.7146998517520528,-0.06688651102086088,-0.14165333772842628
2007-10-01,-0.09762443001297849,-0.09213097697661922,0.9082375391252426,-0.7422072802499206,-0.031797946965780734,-0.12800182666945864
2007-11-01,-0.16150275064277203,-0.14481943123505545,0.7756931159359246,-0.7213898220171888,0.09832917689202238,-0.09826570327703654
2007-12-01,-0.17093022955831008,-0.1032746130233224,0.8399567656466079,-0.7084092128522238,0.10188332194194989,-0.07554585697758612
2008-01-01,-0.15837190709472543,-0.03731852093711797,0.9312245059612101,-0.6394455859514742,-0.0021164941884581514,-0.23152298586701398
2008-02-01,-0.10586888314943017,-0.38158758150488076,0.7848572591142001,-0.6162568510153267,-0.09148164593046736,0.019947779285695005
2008-03-01,-0.17929065653725337,-0.13651232388319928,0.9230901011966696,-0.6496856246695778,0.0015451591088469008,-0.10987613460445281
2008-04-01,-0.25714676243469137,-0.3956270383839704,-0.14993939656424704,-0.00959272717498777,-0.0686050169339012,0.2790345924207345
2008-05-01,-0.1383495068978529,-0.1385917675979906,0.8762347352824776,-0.6498599612637996,-0.05320060362344411,-0.14376342533443515
2008-06-01,-0.2257627729055158,-0.1780749439708558,0.8879978448253755,-0.5555370735170818,0.11295938523161297,-0.039667979549557975
2008-07-01,-0.08125417891580766,0.14521787784560994,0.8141343279005656,-0.45114183808817,-0.08543099250157304,-0.4228207847482736
2008-08-01,-0.12430789113340537,-0.18819374583846296,0.9372220836711892,-0.6585477329778022,-0.0074222186039284675,-0.08430632777521133
2008-09-01,-0.3464927355486292,-0.28917959399441223,0.7323516400213291,-0.411747799367022,0.14834657814107008,-0.07188165292753722
2008-10-01,-0.06805487697888377,-0.3661173141704856,0.8857201783899625,-0.5911860886692288,-0.02847020694909186,0.060451334842347416
2008-11-01,-0.14893831944098088,-0.15285920382924387,0.867172082697171,-0.7141722728626057,0.10931241820214946,0.007545702967849214
2008-12-01,-0.137986560601054,-0.06845834240555347,0.9021683266232687,-0.6505957547768286,0.07453444663453868,-0.1662565689587564
2009-01-01,-0.16734051096214403,-0.0817320243454754,0.8692998095577429,-0.583077612587781,-0.07940734643800124,-0.21914269610885548
2009-02-01,-0.21485906392961732,-0.13754370732934953,0.8453910997231404,-0.5305785052530755,-0.01406910945478734,-0.25755851431002974
2009-03-01,-0.1491923783863938,-0.042203701256608946,0.8601909036628997,-0.6140855857262141,0.14335319001362856,-0.19097424095425464
2009-04-01,-0.3219821430908626,-0.11726714147934737,0.8256033419425524,-0.4558707851658286,0.007202082663095251,-0.2720745056583139
2009-05-01,-0.19027711334400657,-0.1340407159151311,0.8493263281093476,-0.6557194036029489,0.07359177488382265,-0.0970446641447433
2009-06-01,-0.2814118602098514,0.040903503445716985,0.7191225034241547,-0.5790790664445701,0.20622682398592132,-0.17325624248978566
2009-07-01,-0.10605774157276544,-0.10286421274943668,0.7957950832452091,-0.6838889226670832,0.19732589927243993,-0.11406814049306588
2009-08-01,-0.0884958920623208,-0.06072165192057165,0.96359079248523,-0.7889784416890894,0.05745912626535626,-0.04075409557743197
2009-09-01,-0.194430462114853,-0.3659286737810585,0.8903760048189225,-0.2651941659235907,0.020321391266466936,-0.26374930209510816
2009-10-01,-0.13714133938990725,-0.558258439547501,0.5735779063516961,-0.27133280735944015,-0.0490354391630327,0.4106540681884227
2009-11-01,-0.023006155189225785,-0.512304548208822,0.6119546198691346,-0.48584930598944753,-0.044624808693434534,0.3222605620499357
2009-12-01,-0.00022820155280251536,-0.5902327274523786,0.6288701707172928,-0.4105286641723242,0.052167082674657084,0.31797315343054483
2010-01-01,-0.19915013746934646,-0.3278265105812693,0.7660592873884577,-0.5543633703655844,0.0716215081261833,-0.08097918606915877
2010-02-01,-0.19312723014939645,-0.04829371327453349,0.8933238304606526,-0.6098307278155269,0.11617379286494534,-0.13925070543494486
2010-03-01,-0.13605263920249347,-0.0792652711106912,0.9575797452470555,-0.6985410873971033,0.0944114062248226,-0.034149850817833796
2010-04-01,0.11786095590892126,-0.753193272866173,0.18962773179664805,-0.1424361311906037,0.09193015715430142,0.7049517510833524
2010-05-01,0.008153258243497693,-0.10685867136437031,0.9390374748085879,-0.6233330204012557,-0.108438054345552,-0.21417952083673641
2010-06-01,0.02666567053567722,-0.1835757010170067,0.7392820194920187,-0.5935092600405861,-0.21130132069661453,-0.10472411141011445
2010-07-01,-0.42578505539386974,-0.2755939859608591,0.7028557235012779,-0.2406690818050481,0.3535313764026567,0.0015647769362885336
2010-08-01,0.08477983802466535,-0.5327790614696801,0.8152245201482674,-0.29209453138060404,-0.2454516633201169,0.029670385656666576
2010-09-01,-0.10392043252954813,-0.06836088557100235,0.937602317316199,-0.7897698435982928,0.06403214831931725,-0.03631437266564048
2010-10-01,0.2631824172628643,-0.524053966769904,-0.21925241418029906,0.6163547375554574,-0.27568090907833,-0.10147555515314491
2010-11-01,-0.3328252542700794,-0.5070724867278238,0.5480715389707037,-0.060062827168343144,-0.011668667919475767,-0.21444008348168697
2010-12-01,-0.24726323794670776,-0.21971974540711728,0.7866742007522054,-0.5709788551967083,0.14434465216017417,-0.031019308537086853
2011-01-01,-0.3019254077964067,-0.27549660773190887,0.6317622319330068,-0.20408539610045862,0.21533502885157282,-0.3713953275866461
2011-02-01,-0.026149120299963035,-0.24638836441438192,0.9008903007490696,-0.6878500171371532,-0.06201543785953468,0.07670675953989776
2011-03-01,-0.011750635433706505,-0.1906725829401482,0.9790988698142846,-0.8081842100468631,-0.004755630618757929,0.0055380711462395685
2011-04-01,-0.01578503235513343,-0.19182344032464635,0.8708538291431379,-0.7941349135206028,-0.12346092983621773,-0.003941854820261566
2011-05-01,0.13775843251435343,-0.22307024860832156,0.616516604380747,-0.5765368924419834,-0.36176926764421374,0.08434855441038092
2011-06-01,-0.16762845083409977,-0.31109971066486186,0.7798729301630687,0.0504117840109305,0.049544575052435744,-0.6414425492746036
2011-07-01,0.005595389583652882,-0.20701897395181001,0.2786332403856355,-0.2860160201518356,-0.27032070170586187,0.20170655087418454
2011-08-01,0.007764484887856721,-0.1159696077376986,0.6542544057516494,-0.41434197964076014,-0.23569330443531958,-0.2838841823157197
2011-09-01,0.0018602932588836268,-0.20374515449403732,0.9458113354898269,-0.6947352757708949,-0.0733491875658925,-0.08049875342046475
2011-10-01,0.23191093470523177,-0.16442866672718653,0.0752418030584148,-0.18277392822986469,-0.33580210771006197,0.07950180302476897
2011-11-01,-0.2976971977161606,-0.22609562352365353,0.34276500242132835,-0.17183524485347257,0.27525108214983673,-0.047810570660314466
2011-12-01,0.024934626874750645,-0.31275041201946957,0.8481766759720066,-0.630125844994837,-0.07056509478420984,0.11344734535472605
2012-01-01,-0.0976400778359626,-0.15783863750044666,0.9554810736202546,-0.6690647563756114,-0.05582544498120789,-0.06415000968651668
2012-02-01,-0.0645261201264168,-0.010525995399340621,1.0018214183269187,-0.8224140458337558,0.03873290678324607,-0.06197951353032175
2012-03-01,0.11118326046051107,-0.2500070908884491,0.790091228081277,-0.6496566804601569,-0.15008184154968784,-0.04897989855991827
2012-04-01,-0.13050335330492357,0.013518982660955449,0.9670216479274948,-0.6899122040637173,0.030760334669502707,-0.16828347737340593
2012-05-01,0.028479585182385907,-0.28954188577588535,0.8569703062577451,-0.5316273555885883,-0.1881887068492302,-0.10519216034616526
2012-06-01,-0.06184895100166413,-0.3063491418139725,0.8945286675130425,-0.6842275840889396,0.03562955398881759,-0.017416101593563774
2012-07-01,0.19636887882470982,-0.4036467797145357,0.4808449327812734,-0.5049806476035772,-0.10093737620028241,0.31322138487562173
2012-08-01,-0.17796133688542692,-0.13765676497150223,0.7788957132515589,-0.771272622070198,0.04627674984110107,-0.087936812980213
2012-09-01,-0.5936050428885397,-0.051820029031802606,-0.19005103798679268,0.03711683398124843,0.5541019756298396,-0.058865898128762195
2012-10-01,-0.03312940967652138,-0.3378501663815979,0.7875282997859496,-0.6160222112605891,-0.09716758090509302,0.1283023319902487
2012-11-01,-0.04534781720701888,-0.31673109312295605,0.6847366367319042,-0.6277635372958675,-0.21832950382178917,0.10709141182046422
2012-12-01,-0.20036301172387802,-0.6499684574635888,0.46972838960515795,-0.2656742323495512,-0.13345027142418375,0.28081563743364063
2013-01-01,-0.12064775833976228,-0.2732289725335911,0.783183937286251,-0.5687160275787442,0.0979747591435941,-0.15624854511805736
2013-02-01,-0.047398881574566384,-0.17101014795664218,0.9177466050866234,-0.6562230508075927,-0.060078079223275224,-0.14754323535130018
2013-03-01,-0.2898432349299258,-0.3026110723285452,0.7475885095430214,-0.5982645791932285,0.056180915079188216,-0.005511688926090623
2013-04-01,0.11649309092648569,-0.2513764714657462,0.7761957188335691,-0.39570361543051863,-0.3576398003321446,-0.10259130301153559
2013-05-01,-0.17942503598738713,-0.046160592644269825,0.7793879141240212,-0.5749036842431292,-0.15879763635194974,-0.26132513664924306
2013-06-01,-0.20352074589885644,-0.19226928407115088,0.8038268898767078,-0.6967917359433237,0.07352530191427174,-0.030066042295689443
2013-07-01,-0.2083325013415682,-0.034242083637386664,0.9102112843379783,-0.5342619946187627,-0.10486590004130618,-0.20808623602299767
2013-08-01,-0.35281424685981705,-0.09305779496133859,0.7545715746208573,-0.37570459381187105,0.2365904668495136,-0.18726132289660258
2013-09-01,-0.050643161709546324,-0.2708478629586057,0.9342528750304188,-0.6805206673108775,0.026641149350670013,-0.037094283639881924
2013-10-01,-0.020827552672718203,-0.17237378054755792,0.9195198102767356,-0.6768250129160965,-0.047609110198798536,-0.16284473338809313
2013-11-01,-0.1004184059626666,-0.5833218464042204,0.4878050470497326,-0.21438175226442518,-0.20361750260172154,-0.4104554457172336
2013-12-01,-0.03665375684402038,-0.17684211494228047,0.8790109773072287,-0.7949769713600933,-0.06915291109158742,-0.043363268454790056
2014-01-01,-0.3564623595217553,-0.6812224226387267,0.10004233247036723,0.3297419727860379,0.08122815233932118,0.3681482950460414
2014-02-01,0.02816932133702882,-0.21907216907894672,-0.08107025298050045,0.021124242139035958,-0.2552856325890738,0.0397491800634735
2014-03-01,0.1608577228862688,-0.20348496769060542,0.7255510105366401,-0.6200595080477117,-0.14907818400644765,-0.14096860683232637
2014-04-01,-0.12605155162116025,-0.452984225611994,-0.13949199023871267,0.3552727567206884,-0.24598926098107624,-0.06327490991605822
2014-05-01,-0.02937373639481973,-0.28770998194147057,0.8583686230537843,-0.7437722536552674,-0.07722699625578762,0.003548408698870772
2014-06-01,-0.14916065907685092,-0.006728908339296205,0.8595280161338401,-0.7574539958673361,0.19644548991177566,-0.030682930670900898
2014-07-01,-0.16429835112165145,-0.32586122021148917,0.6933728637427007,-0.580381681905082,-0.0673160641357806,0.1687698188832959
2014-08-01,-0.40868301911875793,-0.670990880359421,0.05941226553770521,0.46115704027822935,0.13666970261312145,0.11833130269431102
2014-09-01,-0.024047765703749446,-0.6221890557260146,0.23979611439062132,-0.11016192268381886,-0.1792793970117299,-0.46807184551237224
2014-10-01,-0.06012204586926142,-0.33128207417345285,0.8507858420456642,-0.7281887143842655,-0.014663453165352877,0.014957870362003325
2014-11-01,-0.1729756247579754,-0.16312590417212153,0.8430295352541736,-0.7329697960332486,-0.07094786988776405,0.016951269894716736
2014-12-01,-0.04281152371569415,-0.41240084028538915,0.8096629866190678,-0.6412125310681338,-0.04565186136689735,0.048260256944817684
2015-01-01,-0.15937883900999503,-0.4325304888060783,0.6860955496819718,-0.5040732721736004,0.04863083558545772,0.16929101474289662
2015-02-01,-0.17523701549772505,-0.5138365208541703,0.6005747942785734,-0.37268951953002016,0.03163681036826849,0.30602533947124233
2015-03-01,-0.3084773525039256,-0.4371100886748037,0.25738015961308897,0.09962902089689643,0.08939352184128233,0.0672976371137125
2015-04-01,0.010400369444831142,-0.3815268401146804,0.8028209831422521,-0.577526299926526,-0.17239217573258842,0.0553333316391217
2015-05-01,-0.3883078021716977,0.02947785516484403,0.7806973147382502,-0.379465075048543,0.015102574237394972,-0.4069493786392702
2015-06-01,-0.25859739996219255,-0.0569558162373706,0.8277785682656175,-0.6083327110240563,-0.02310996352299223,-0.22522554098777087
2015-07-01,-0.1347642937341906,0.02448332610174915,0.8328319256130315,-0.6108844095721931,-0.07296363824916502,-0.32407240672967036
2015-08-01,-0.08187306713242001,-0.10197218528904282,0.8400675829519756,-0.6704020733448028,-0.06327195164607101,-0.2424131396356876
2015-09-01,-0.24689076522193187,-0.06833037764004671,0.8089362690991325,-0.6856835767674037,0.047566345374314124,-0.14259266589717104
2015-10-01,-0.47027206559227397,0.09032314265908503,0.14282959113080662,-0.06684035073139954,0.11606853522398214,-0.22561022075423126
2015-11-01,0.010674722423491356,-0.1344522352419675,0.8998111440676181,-0.602654919476255,-0.12938701196370847,-0.22301996682695974
2015-12-01,-0.18602239707580354,-0.0063486577757986586,0.9034420572574146,-0.5850708928800928,-0.007929895928754906,-0.31118609908213557
2016-01-01,-0.44737047438183847,-0.635730943657523,0.3765961540562645,0.37690812528800327,-0.05922861153306043,-0.10416569108331031
2016-02-01,0.11817410395316594,-0.2854160104487029,0.6349017990263857,-0.3996364950415596,-0.24701745107999734,-0.07619823150342778
2016-03-01,-0.058141863154110136,-0.22091837031635175,0.8926070854988007,-0.617411990271517,-0.10947300602582703,-0.1014476847333933
2016-04-01,-0.1174562843164615,-0.23367653311834477,0.9245362767689835,-0.480880778059663,-0.08532223294688168,-0.15812789478966555
2016-05-01,-0.08745998178440466,-0.027114551569329418,0.859225620494783,-0.60711207991465,-0.08965785677585399,-0.32942990946097905
2016-06-01,-0.2275397015036922,-0.5309509155884305,-0.0815988917875684,0.3476052342000371,-0.04692839471170396,0.16693178304070244
2016-07-01,-0.35434582417665283,-0.3290742388199573,0.6883590921385561,-0.3835840218377917,0.1305402873104916,-0.11409653571655032
2016-08-01,-0.18082495592385944,-0.16346490315551462,0.5285468315539553,-0.2837371185798734,-0.0408201802757191,-0.35372244531506514
2016-09-01,-0.15462644553874394,-0.23321047141761056,0.8308277896651379,-0.6225815206096105,0.021646889223791738,-0.1371068835451054
2016-10-01,-0.17844807995438652,-0.14611059442877813,0.9486598348453512,-0.6764870953194059,0.036160777942703656,0.014133617509374495
2016-11-01,-0.1065377407168075,-0.1076609848633414,0.8573747761628357,-0.619989843312599,0.023760975736855105,-0.2846756792075613
2016-12-01,-0.038007281399225594,-0.18941451124856368,0.9258056993352437,-0.6183513128976132,-0.02219636135046994,-0.20622483376888376
2017-01-01,-0.05479467083043999,-0.09038876768987157,0.9513679173119193,-0.6108958664188976,-0.1430784171719417,-0.14947436057692956
2017-02-01,-0.2680507418286849,-0.5006610970799606,-0.43077812562489615,0.6470708456454098,0.002172175652082502,0.15126701416896604
2017-03-01,-0.2578210945008935,-0.4465940012841899,-0.37862006079091515,0.30579222585793026,-0.07581377625280517,0.25846114817594934
2017-04-01,-0.09598329894739042,-0.057907446729020574,0.9717160144292749,-0.7641610988037535,0.024344747406700458,-0.08588739368386
2017-05-01,-0.03119599648596563,-0.06847373505352389,0.9721442479990057,-0.7524351520235834,0.057079731159356266,-0.1186711372785652
2017-06-01,-0.0743312626778805,-0.01086601327449818,0.9772211262046457,-0.8568788209620999,0.010536741368451041,-0.0701660355124244
2017-07-01,-0.21668359271031534,-0.5951973171353373,0.5253005062470659,-0.10597665984020177,-0.17099773049685563,-0.18155317740548105
2017-08-01,0.09494851055415308,-0.38746342200232686,0.7722056145645957,-0.5614735821668583,-0.12416417267677132,-0.0597446980352948
2017-09-01,-0.1677324381909831,-0.28113772967181644,0.7419813190241775,-0.47948966714748437,0.16870917870630142,-0.16094966725923696
2017-10-01,-0.06536967259692807,-0.04913788421871667,0.9780485475637042,-0.7991706487914539,-0.004795097571799655,-0.10347814925739775
2017-11-01,-0.2843569525644252,-0.47093026204113725,0.5398748664760976,-0.23899851968120236,-0.15845823219659538,0.30738116704054214
2017-12-01,-0.3946506806356014,-0.4774169163194293,0.28168195118061634,-0.3162017458631113,0.14599567614908238,0.255454567312422
2018-01-01,-0.15087853687825067,0.06059448631038841,0.8796164698707449,-0.5924247564882692,-0.008813196364675625,-0.30767255408767114
2018-02-01,-0.10966887449968955,-0.12943192884242521,0.8990463644900423,-0.7926764351795836,0.059714508600628706,0.009461888387630788
2018-03-01,-0.1872265048942426,0.003995371325264498,0.9068965707709854,-0.6571351435341167,0.004912535003317551,-0.2398338744720732
2018-04-01,-0.06489553193078393,0.006009885669758211,0.9811425182646577,-0.8552222532968066,0.018973873564670667,-0.07375593727332296
2018-05-01,-0.20686364133577162,-0.1582632641055448,0.9214917999683336,-0.5635828600203874,-0.016153433832250246,-0.1336450007377128
2018-06-01,0.20620891836422772,-0.48296085506049713,0.3171715987666617,-0.41333831885963407,-0.2125616501777105,0.36775865877126873
2018-07-01,-0.06963693875352187,-0.09516293500864553,0.6875877913784282,-0.4837120933696826,-0.22456230103821057,-0.23217263675479582
2018-08-01,-0.11129475919583504,-0.005198469787597543,0.873110537249813,-0.7705785417982921,0.05568276302427164,-0.18413492894419078
2018-09-01,-0.27180749590444975,-0.42082590866063146,0.6529130464008952,-0.4253444304572261,-0.004568004333660118,0.2245411142431373
2018-10-01,-0.07508521112920566,-0.13871982535069077,0.8721487124984003,-0.715288010154481,-0.09220834241064559,-0.10654989845657666
2018-11-01,-0.18126657801751014,-0.6176000821371668,0.04597627253232152,0.21844341842940876,0.036981867514053024,0.20469787025993247
2018-12-01,-0.13196807037174715,-0.05023594049495243,0.908164299445671,-0.8285702938477161,0.06685487385305693,-0.014206521986856348
2019-01-01,0.02106130163807461,-0.500783616518463,0.5726931589849278,-0.25935796503890984,-0.08956049559681623,-0.050349852641582094
2019-02-01,-0.008381018455601567,-0.18773164882222007,0.8620880294142237,-0.6538266067683618,-0.03874093515555989,-0.24923176138403325
2019-03-01,-0.22137644464723197,0.053456355291446114,0.796985895205401,-0.600151779672002,0.0685867956804864,-0.2594427295034325
2019-04-01,-0.3198710254833408,0.1037012684136214,0.653292341254375,-0.5738781271242972,0.16518990967882197,-0.18406732804554365
2019-05-01,-0.03770820674382926,-0.11453288669994276,0.8645170953337539,-0.694952754532132,-0.06767243701739196,-0.22061661967295035
2019-06-01,-0.3850157095641049,-0.8142684796154409,0.14466567585151036,0.1627841690840907,0.110572356691952,0.2096632794687746
2019-07-01,-0.3783047646472085,-0.10218016882830849,0.38295066855373394,0.020725847018701324,0.022267701833538378,-0.2825006548834532
2019-08-01,-0.16349454540091116,-0.1902791620584307,0.8841967711636537,-0.6482313859214042,0.10186587123990902,-0.011932264215691355
2019-09-01,-0.3801219998683543,-0.5396165102545373,-0.09256615567427551,0.479001829679523,0.24660433652178154,0.14243355460041274
2019-11-01,-0.14809893982869407,-0.22771936745694615,0.8237594393740855,-0.6211010173342014,-0.06379007787187364,0.11553115813419948
2019-12-01,-0.04464617629223017,-0.05286429682576907,1.0092155592950314,-0.7861724591093977,0.017308613194795604,-0.08979289528277637
2020-01-01,-0.16844718720451418,-0.3736648743435909,0.7552344486379281,-0.5318311881832247,-0.16512996344569156,-0.005692338185050564
2020-02-01,-0.13811859903677262,-0.18255290817649897,0.8487916982189115,-0.6945785093614887,-0.06528135126005583,0.0706769339462722
2020-03-01,0.02387281604567708,-0.4361671657000412,0.8618983804963002,-0.6338289749076199,-0.039443386718976056,0.0047892761313857
2020-04-01,-0.0007100997386602431,-0.3654038063892841,0.7639840506950539,-0.5802102322132295,-0.12434763097929342,0.16534417998447876
2020-05-01,-0.010395452562247713,-0.20763543235761023,0.7699275410970174,-0.6464503280682694,-0.28365065340018003,0.08194059251467509
2020-06-01,0.03698996313152181,-0.31232890791813267,0.7984031562756138,-0.6334144382158362,-0.1271157593037719,0.09174777515512372
2020-07-01,0.13686339745384968,-0.27253148571432395,0.6804743706839341,-0.6163285679628837,-0.127449765599683,0.1663524125853258
2020-08-01,-0.15316582353662628,-0.2715513027159351,0.8342309251182592,-0.48345518180626973,-0.11979620653210317,-0.13780056029080642
2020-09-01,0.005326255698342276,-0.30372344373575344,0.8614080046971668,-0.6769183817667451,-0.06960746174658745,0.08301645235540493
2020-10-01,-0.4079094471313613,-0.1304700517806543,0.732971291712048,-0.2919586124588777,0.07801567316804867,-0.35867492374901
2020-11-01,-0.17153288033680325,-0.0827752087760434,0.9440552545716465,-0.5354670057070198,0.033300258838302926,-0.23286939177018404
2020-12-01,-0.3983552270014121,-0.7211320149007927,0.2652137782138145,0.19884458456090426,0.05960915597191618,-0.041123256799409535
